0 2 0.0993368
0 6 0.468742
0 7 5.42771e-05
0 9 0.431867
2 2 1
3 3 1
4 4 1
5 6 0.4891
5 7 0.5109
6 5 0.928571
6 19 0.0714286
7 9 1
8 4 1
9 7 1
10 7 0.357927
10 11 0.642073
11 8 1
12 10 1
13 9 1
14 6 1
15 2 1
16 7 0.999994
16 9 6.13433e-06
17 11 1
18 12 1
19 2 1
20 2 0.784114
20 7 0.215886
21 8 1
22 9 1
23 13 0.5
23 14 0.5
24 12 1
25 15 1
26 8 1
27 2 1
28 8 1
29 7 1
30 2 0.0215941
30 7 0.978406
31 8 1
32 7 1
33 9 1
34 12 1
35 16 1
36 9 1
37 18 1
38 17 1
39 20 1
40 2 0.2
40 4 0.2
40 6 0.2
40 7 0.2
40 20 0.2
41 20 1
42 12 1
43 2 1
44 2 0.166667
44 5 0.166667
44 6 0.166667
44 7 0.166667
44 10 0.166667
44 20 0.166667
45 10 1
46 2 0.166667
46 5 0.166667
46 6 0.166667
46 7 0.166667
46 10 0.166667
46 20 0.166667
47 15 1
