0 1 5 100 0.201944
1 1 5 100 0.797846
4 1 5 100 0.000209772
2 2 5 100 0.8
5 2 5 100 0.2
1 3 5 100 0.2
3 3 5 100 0.8
0 4 5 100 0.399995
3 4 5 100 0.2
5 4 5 100 0.400005
0 5 5 100 0.411581
2 5 5 100 0.188407
4 5 5 100 0.200217
5 5 5 100 0.199794
0 6 5 100 0.000373415
4 6 5 100 0.999627
0 1 6 100 0.146127
1 1 6 100 0.529721
4 1 6 100 0.182576
5 1 6 100 0.141576
2 2 6 100 0.714286
3 2 6 100 0.285714
3 3 6 100 0.714286
4 3 6 100 0.285714
0 4 6 100 0.24955
4 4 6 100 0.0361633
6 4 6 100 0.714287
0 5 6 100 0.536306
2 5 6 100 0.0398176
4 5 6 100 0.134753
5 5 6 100 0.231991
6 5 6 100 0.0571326
0 6 6 100 1.10034e-05
1 6 6 100 0.4
5 6 6 100 0.599989
0 1 7 100 0.00340285
1 1 7 100 0.996597
2 2 7 100 0.5
3 2 7 100 0.5
4 3 7 100 1
0 4 7 100 0.5
6 4 7 100 0.5
0 5 7 100 0.0502325
5 5 7 100 0.921592
6 5 7 100 0.0140877
7 5 7 100 0.0140877
7 6 7 100 1
0 1 8 100 0.0110874
1 1 8 100 0.893271
4 1 8 100 0.000642778
6 1 8 100 0.0937778
7 1 8 100 0.00122067
2 2 8 100 0.571429
3 2 8 100 0.285714
4 2 8 100 0.142857
0 3 8 100 0.142857
3 3 8 100 0.428571
4 3 8 100 0.142857
5 3 8 100 0.142857
6 3 8 100 0.142857
1 4 8 100 0.142857
5 4 8 100 0.571429
8 4 8 100 0.285714
0 5 8 100 0.567349
2 5 8 100 0.0283761
4 5 8 100 0.261349
6 5 8 100 0.142857
7 5 8 100 6.9173e-05
3 6 8 100 0.142857
5 6 8 100 0.142857
6 6 8 100 0.571429
7 6 8 100 0.142857
2 7 8 100 0.0416664
3 7 8 100 0.0416664
5 7 8 100 0.166667
7 7 8 100 0.0416664
8 7 8 100 0.708334
0 8 8 100 0.224523
4 8 8 100 0.194597
7 8 8 100 0.58088
0 1 9 100 0.000157173
1 1 9 100 0.999843
2 2 9 100 0.5
3 2 9 100 0.5
4 3 9 100 0.499989
5 3 9 100 1.05202e-05
6 3 9 100 0.5
9 4 9 100 1
0 5 9 100 0.292747
2 5 9 100 0.103626
6 5 9 100 0.103626
8 5 9 100 0.5
5 6 9 100 0.5
7 6 9 100 0.5
0 7 9 100 0.000964374
7 7 9 100 0.999036
0 1 10 100 0.00129107
1 1 10 100 0.397984
4 1 10 100 0.399711
5 1 10 100 0.127969
8 1 10 100 0.0730448
2 2 10 100 0.8
3 2 10 100 0.2
3 3 10 100 0.4
4 3 10 100 0.6
0 4 10 100 0.0272563
1 4 10 100 0.115079
5 4 10 100 0.259299
6 4 10 100 0.198366
7 4 10 100 0.2
10 4 10 100 0.2
0 5 10 100 0.250137
6 5 10 100 0.149863
8 5 10 100 0.574382
9 5 10 100 0.0128091
10 5 10 100 0.0128091
7 6 10 100 0.0607513
8 6 10 100 0.25
9 6 10 100 0.189249
10 6 10 100 0.5
0 7 10 100 0.0309214
9 7 10 100 0.635745
10 7 10 100 0.333333
0 8 10 100 0.0619969
9 8 10 100 0.938003
0 1 13 100 0.027142
8 1 13 100 0.00866014
12 1 13 100 0.964198
6 2 13 100 1
7 3 13 100 1
10 4 13 100 1
0 5 13 100 0.108285
9 5 13 100 0.891715
11 6 13 100 1
1 7 13 100 0.0841662
3 7 13 100 0.377371
13 7 13 100 0.538462
0 8 13 100 0.0169369
2 8 13 100 0.983063
1 1 14 100 1
3 2 14 100 0.5
4 2 14 100 0.5
2 3 14 100 0.5
3 3 14 100 0.5
8 4 14 100 1
11 5 14 100 1
0 6 14 100 0.198018
10 6 14 100 0.801982
12 7 14 100 1
4 8 14 100 0.151711
14 8 14 100 0.848289
0 9 14 100 0.0490276
13 9 14 100 0.950972
