1 0 100 5 0.00266668
4 0 100 5 0.997333
1 1 100 5 1
2 2 100 5 1
3 3 100 5 1
3 4 100 5 0.476482
4 4 100 5 0.0603089
5 4 100 5 0.463209
1 5 100 5 0.0119821
4 5 100 5 9.88869e-06
5 5 100 5 0.988008
4 6 100 5 0.698505
5 6 100 5 0.301495
2 7 100 5 0.0168536
3 7 100 5 1.8088e-05
4 7 100 5 0.00582899
5 7 100 5 0.977299
1 8 100 5 0.00143697
4 8 100 5 2.60768e-05
5 8 100 5 0.998537
4 9 100 5 1.1559e-05
5 9 100 5 0.999988
4 10 100 5 1.6746e-05
5 10 100 5 0.999983
1 0 100 6 0.193143
5 0 100 6 0.806746
6 0 100 6 0.000111572
1 1 100 6 0.669075
3 1 100 6 0.110308
6 1 100 6 0.220617
2 2 100 6 0.807754
5 2 100 6 0.192246
2 3 100 6 0.454545
3 3 100 6 0.454545
4 3 100 6 0.0909091
1 4 100 6 0.137862
3 4 100 6 0.538907
5 4 100 6 7.27311e-06
6 4 100 6 0.323225
1 5 100 6 0.152807
2 5 100 6 0.0955484
3 5 100 6 0.0955504
4 5 100 6 0.191097
5 5 100 6 0.178358
6 5 100 6 0.28664
1 6 100 6 0.0956401
4 6 100 6 0.874164
5 6 100 6 0.0301955
6 7 100 6 1
1 8 100 6 0.145567
4 8 100 6 0.85436
5 8 100 6 1.63385e-06
6 8 100 6 7.12518e-05
4 9 100 6 0.472765
5 9 100 6 0.103904
6 9 100 6 0.423331
4 10 100 6 0.99993
5 10 100 6 1.62764e-06
6 10 100 6 6.85896e-05
1 0 100 7 0.00141107
3 0 100 7 0.817282
4 0 100 7 0.104704
7 0 100 7 0.0766027
1 1 100 7 0.559344
4 1 100 7 0.440656
2 2 100 7 0.923077
7 2 100 7 0.0769226
3 3 100 7 0.88889
7 3 100 7 0.11111
1 4 100 7 0.666506
2 4 100 7 0.333494
4 5 100 7 0.393295
6 5 100 7 0.606705
3 6 100 7 0.5
5 6 100 7 0.5
7 7 100 7 1
5 8 100 7 0.923077
7 8 100 7 0.0769226
3 9 100 7 4.97456e-05
4 9 100 7 0.293515
5 9 100 7 0.0118437
6 9 100 7 0.320188
7 9 100 7 0.374404
5 10 100 7 0.0190198
6 10 100 7 0.689072
7 10 100 7 0.291908
1 0 100 8 0.0220101
5 0 100 8 0.718697
8 0 100 8 0.259293
1 1 100 8 0.985963
7 1 100 8 0.0140366
2 2 100 8 0.771948
5 2 100 8 0.0383335
8 2 100 8 0.189718
2 3 100 8 0.313609
3 3 100 8 0.470413
6 3 100 8 0.156804
7 3 100 8 0.0591735
1 4 100 8 0.000936033
3 4 100 8 0.416066
5 4 100 8 0.380585
8 4 100 8 0.202413
1 5 100 8 1.83787e-05
4 5 100 8 0.799985
7 5 100 8 0.199996
2 6 100 8 0.148163
3 6 100 8 0.148163
5 6 100 8 0.111021
6 6 100 8 0.592653
1 7 100 8 0.00173904
3 7 100 8 0.203524
4 7 100 8 0.203524
5 7 100 8 9.85485e-05
8 7 100 8 0.591114
1 8 100 8 0.00144128
4 8 100 8 0.166426
6 8 100 8 0.166426
7 8 100 8 0.665706
5 9 100 8 0.487352
8 9 100 8 0.512648
4 10 100 8 0.47332
6 10 100 8 0.0128279
7 10 100 8 0.445603
8 10 100 8 0.0682497
1 11 100 8 0.0124685
6 11 100 8 0.98753
7 11 100 8 1.7207e-06
1 12 100 8 0.999994
3 12 100 8 1.6354e-06
6 12 100 8 4.05422e-06
6 13 100 8 0.129433
7 13 100 8 0.861396
8 13 100 8 0.00917056
6 0 100 9 0.801544
9 0 100 9 0.198456
1 1 100 9 1
3 2 100 9 1
2 3 100 9 0.5
3 3 100 9 0.5
2 4 100 9 0.767212
8 4 100 9 0.232788
1 5 100 9 1
1 6 100 9 1
4 7 100 9 1
4 8 100 9 1
1 9 100 9 1
6 10 100 9 1
5 11 100 9 1
7 12 100 9 0.986486
8 12 100 9 0.0131927
9 12 100 9 0.000320843
7 13 100 9 0.0063069
8 13 100 9 0.0416726
9 13 100 9 0.952021
7 14 100 9 0.0268855
8 14 100 9 0.85404
9 14 100 9 0.119074
