2 0.00187051 0.998129 0 0 0 0 0 0 0 0 
3 0.209383 0.790617 0 0 0 0 0 0 0 0 
4 0.131168 0.868832 0 0 0 0 0 0 0 0 
5 0.0796076 0.920392 0 0 0 0 0 0 0 0 
6 0.0580278 0.941972 0 0 0 0 0 0 0 0 
7 0.873209 0.126791 0 0 0 0 0 0 0 0 
8 2.10403e-05 0.999978 0 0 0 0 0 0 0 0 
9 0 0.999999 0 0 0 0 0 0 0 0 
10 0.142802 0.857198 0 0 0 0 0 0 0 0 
11 0 0.880596 0.119403 0 0 0 0 0 0 0 
12 0.00120888 0.998791 0 0 0 0 0 0 0 0 
13 0.13552 0.86448 0 0 0 0 0 0 0 0 
14 0.294418 0.705582 0 0 0 0 0 0 0 0 
15 0.354779 0.645221 0 0 0 0 0 0 0 0 
16 0.858692 0.141308 0 0 0 0 0 0 0 0 
17 0.109154 0.890846 0 0 0 0 0 0 0 0 
18 0.07885 0.92115 0 0 0 0 0 0 0 0 
19 0.126732 0.873268 0 0 0 0 0 0 0 0 
20 0.287038 0.712962 0 0 0 0 0 0 0 0 
21 0 0.878787 0.121212 0 0 0 0 0 0 0 
22 0.0675497 0.93245 0 0 0 0 0 0 0 0 
23 0 0.861538 0.138461 0 0 0 0 0 0 0 
24 0.131285 0.868715 0 0 0 0 0 0 0 0 
25 0.272833 0.727167 0 0 0 0 0 0 0 0 
26 0 0.876922 0.123077 0 0 0 0 0 0 0 
27 0.00141012 0.99859 0 0 0 0 0 0 0 0 
28 0 0.876922 0.123077 0 0 0 0 0 0 0 
29 0.00145066 0.998549 0 0 0 0 0 0 0 0 
30 0.28765 0.71235 0 0 0 0 0 0 0 0 
31 0.00145066 0.998549 0 0 0 0 0 0 0 0 
32 0.00145066 0.998549 0 0 0 0 0 0 0 0 
33 0.123095 0.876905 0 0 0 0 0 0 0 0 
34 0 0.999999 0 0 0 0 0 0 0 0 
35 0.0696333 0.930367 0 0 0 0 0 0 0 0 
36 0.00146549 0.998535 0 0 0 0 0 0 0 0 
37 0.0696333 0.930367 0 0 0 0 0 0 0 0 
38 0.12865 0.87135 0 0 0 0 0 0 0 0 
39 0.118929 0.881071 0 0 0 0 0 0 0 0 
40 0.999999 0 0 0 0 0 0 0 0 0 
41 0.257242 0.742758 0 0 0 0 0 0 0 0 
42 0.29112 0.70888 0 0 0 0 0 0 0 0 
43 0.282956 0.717044 0 0 0 0 0 0 0 0 
44 0.999999 0 0 0 0 0 0 0 0 0 
45 0.122588 0.877412 0 0 0 0 0 0 0 0 
46 0.999999 0 0 0 0 0 0 0 0 0 
47 0 0.999999 0 0 0 0 0 0 0 0 
